<?xml version="1.0"?>
<opencv_storage>
<classifier type_id="opencv-haar-classifier">
  <size>
    24 24</size>
  <stages>
    <_>
      <!-- stage 0 -->
      <trees>
        <_>
          <!-- tree 0 -->
          <_>
            <!-- root node -->
            <feature>
              <rects>
                <_>
                  1 0 22 24 -1.</_>
                <_>
                  1 12 22 12 2.</_></rects>
              <tilted>0</tilted></feature>
            <threshold>1.5963600575923920e-01</threshold>
            <left_node>1</left_node>
            <right_val>-6.9665968418121338e-01</right_val></_>
          <_>
            <!-- node 1 -->
            <feature>
              <rects>
                <_>
                  0 1 24 13 -1.</_>
                <_>
                  12 1 12 13 2.</_></rects>
              <tilted>0</tilted></feature>
            <threshold>2.6315110921859741e-01</threshold>
            <left_val>4.3751290440559387e-01</left_val>
            <right_val>-8.8235062360763550e-01</right_val></_></_>
        <_>
          <!-- tree 1 -->
          <_>
            <!-- root node -->
            <feature>
              <rects>
                <_>
                  8 11 8 6 -1.</_>
                <_>
                  8 13 8 2 3.</_></rects>
              <tilted>0</tilted></feature>
            <threshold>2.1508919075131416e-02</threshold>
            <left_node>1</left_node>
            <right_val>8.6408287286758423e-01</right_val></_>
          <_>
            <!-- node 1 -->
            <feature>
              <rects>
                <_>
                  10 11 7 6 -1.</_>
                <_>
                  10 13 7 2 3.</_></rects>
              <tilted>0</tilted></feature>
            <threshold>1.9343249499797821e-02</threshold>
            <left_val>-2.3195379972457886e-01</left_val>
            <right_val>8.7450611591339111e-01</right_val></_></_>
        <_>
          <!-- tree 2 -->
          <_>
            <!-- root node -->
            <feature>
              <rects>
                <_>
                  7 11 7 6 -1.</_>
                <_>
                  7 13 7 2 3.</_></rects>
              <tilted>0</tilted></feature>
            <threshold>-1.6769610345363617e-02</threshold>
            <left_val>8.1213361024856567e-01</left_val>
            <right_node>1</right_node></_>
          <_>
            <!-- node 1 -->
            <feature>
              <rects>
                <_>
                  6 11 8 3 -1.</_>
                <_>
                  6 12 8 1 3.</_></rects>
              <tilted>0</tilted></feature>
            <threshold>-7.7404892072081566e-03</threshold>
            <left_val>8.8224732875823975e-01</left_val>
            <right_val>-4.2529401183128357e-01</right_val></_></_>
        <_>
          <!-- tree 3 -->
          <_>
            <!-- root node -->
            <feature>
              <rects>
                <_>
                  7 10 13 6 -1.</_>
                <_>
                  7 12 13 2 3.</_></rects>
              <tilted>0</tilted></feature>
            <threshold>3.2381769269704819e-02</threshold>
            <left_node>1</left_node>
            <right_val>9.5880371332168579e-01</right_val></_>
          <_>
            <!-- node 1 -->
            <feature>
              <rects>
                <_>
                  12 12 6 3 -1.</_>
                <_>
                  12 13 6 1 3.</_></rects>
              <tilted>0</tilted></feature>
            <threshold>5.7919011451303959e-03</threshold>
            <left_val>-5.0077989697456360e-02</left_val>
            <right_val>7.2276592254638672e-01</right_val></_></_>
        <_>
          <!-- tree 4 -->
          <_>
            <!-- root node -->
            <feature>
              <rects>
                <_>
                  6 12 6 3 -1.</_>
                <_>
                  6 13 6 1 3.</_></rects>
              <tilted>0</tilted></feature>
            <threshold>-5.7821031659841537e-03</threshold>
            <left_val>8.0340957641601562e-01</left_val>
            <right_node>1</right_node></_>
          <_>
            <!-- node 1 -->
            <feature>
              <rects>
                <_>
                  9 7 3 5 -1.</_>
                <_>
                  10 7 1 5 3.</_></rects>
              <tilted>0</tilted></feature>
            <threshold>5.2122599445283413e-03</threshold>
            <left_val>-5.4635059833526611e-01</left_val>
            <right_val>6.9258069992065430e-01</right_val></_></_></trees>
      <stage_threshold>-1.1774920225143433e+00</stage_threshold>
      <parent>-1</parent>
      <next>-1</next></_>
    <_>
      <!-- stage 1 -->
      <trees>
        <_>
          <!-- tree 0 -->
          <_>
            <!-- root node -->
            <feature>
              <rects>
                <_>
                  0 7 24 12 -1.</_>
                <_>
                  12 7 12 12 2.</_></rects>
              <tilted>0</tilted></feature>
            <threshold>-2.3194010555744171e-01</threshold>
            <left_val>-8.2410562038421631e-01</left_val>
            <right_node>1</right_node></_>
          <_>
            <!-- node 1 -->
            <feature>
              <rects>
                <_>
                  0 0 24 16 -1.</_>
                <_>
                  0 0 12 8 2.</_>
                <_>
                  12 8 12 8 2.</_></rects>
              <tilted>0</tilted></feature>
            <threshold>2.0726700127124786e-01</threshold>
            <left_val>3.8337320089340210e-01</left_val>
            <right_val>-8.3854311704635620e-01</right_val></_></_>
        <_>
          <!-- tree 1 -->
          <_>
            <!-- root node -->
            <feature>
              <rects>
                <_>
                  9 12 8 3 -1.</_>
                <_>
                  9 13 8 1 3.</_></rects>
              <tilted>0</tilted></feature>
            <threshold>7.5525068677961826e-03</threshold>
            <left_node>1</left_node>
            <right_val>7.0906960964202881e-01</right_val></_>
          <_>
            <!-- node 1 -->
            <feature>
              <rects>
                <_>
                  10 12 7 3 -1.</_>
                <_>
                  10 13 7 1 3.</_></rects>
              <tilted>0</tilted></feature>
            <threshold>9.2586614191532135e-03</threshold>
            <left_val>-1.9596309959888458e-01</left_val>
            <right_val>8.1146377325057983e-01</right_val></_></_>
        <_>
          <!-- tree 2 -->
          <_>
            <!-- root node -->
            <feature>
              <rects>
                <_>
                  10 11 4 3 -1.</_>
                <_>
                  10 12 4 1 3.</_></rects>
              <tilted>0</tilted></feature>
            <threshold>2.8456239961087704e-03</threshold>
            <left_node>1</left_node>
            <right_val>6.3880950212478638e-01</right_val></_>
          <_>
            <!-- node 1 -->
            <feature>
              <rects>
                <_>
                  7 12 8 6 -1.</_>
                <_>
                  7 14 8 2 3.</_></rects>
              <tilted>0</tilted></feature>
            <threshold>2.1410660818219185e-02</threshold>
            <left_val>-5.2306562662124634e-01</left_val>
            <right_val>6.3777208328247070e-01</right_val></_></_>
        <_>
          <!-- tree 3 -->
          <_>
            <!-- root node -->
            <feature>
              <rects>
                <_>
                  11 10 4 3 -1.</_>
                <_>
                  11 11 4 1 3.</_></rects>
              <tilted>0</tilted></feature>
            <threshold>2.7162809856235981e-03</threshold>
            <left_node>1</left_node>
            <right_val>4.5538499951362610e-01</right_val></_>
          <_>
            <!-- node 1 -->
            <feature>
              <rects>
                <_>
                  13 9 1 3 -1.</_>
                <_>
                  13 10 1 1 3.</_></rects>
              <tilted>0</tilted></feature>
            <threshold>1.2537710135802627e-03</threshold>
            <left_val>-1.1431749910116196e-01</left_val>
            <right_val>5.5600661039352417e-01</right_val></_></_>
        <_>
          <!-- tree 4 -->
          <_>
            <!-- root node -->
            <feature>
              <rects>
                <_>
                  7 12 6 3 -1.</_>
                <_>
                  7 13 6 1 3.</_></rects>
              <tilted>0</tilted></feature>
            <threshold>-7.4630309827625751e-03</threshold>
            <left_val>7.7791261672973633e-01</left_val>
            <right_node>1</right_node></_>
          <_>
            <!-- node 1 -->
            <feature>
              <rects>
                <_>
                  7 12 7 3 -1.</_>
                <_>
                  7 13 7 1 3.</_></rects>
              <tilted>0</tilted></feature>
            <threshold>7.8319031745195389e-03</threshold>
            <left_val>-5.3462928533554077e-01</left_val>
            <right_val>7.2780621051788330e-01</right_val></_></_>
        <_>
          <!-- tree 5 -->
          <_>
            <!-- root node -->
            <feature>
              <rects>
                <_>
                  10 3 4 3 -1.</_>
                <_>
                  10 4 4 1 3.</_></rects>
              <tilted>0</tilted></feature>
            <threshold>4.9605672247707844e-03</threshold>
            <left_node>1</left_node>
            <right_val>8.8048142194747925e-01</right_val></_>
          <_>
            <!-- node 1 -->
            <feature>
              <rects>
                <_>
                  11 4 4 3 -1.</_>
                <_>
                  11 5 4 1 3.</_></rects>
              <tilted>0</tilted></feature>
            <threshold>4.1102678515017033e-03</threshold>
            <left_val>-1.2752009928226471e-01</left_val>
            <right_val>6.9834172725677490e-01</right_val></_></_>
        <_>
          <!-- tree 6 -->
          <_>
            <!-- root node -->
            <feature>
              <rects>
                <_>
                  7 8 5 3 -1.</_>
                <_>
                  7 9 5 1 3.</_></rects>
              <tilted>0</tilted></feature>
            <threshold>-4.0005980990827084e-03</threshold>
            <left_val>6.4235752820968628e-01</left_val>
            <right_node>1</right_node></_>
          <_>
            <!-- node 1 -->
            <feature>
              <rects>
                <_>
                  8 8 4 3 -1.</_>
                <_>
                  8 9 4 1 3.</_></rects>
              <tilted>0</tilted></feature>
            <threshold>4.6025691553950310e-03</threshold>
            <left_val>-5.1070779561996460e-01</left_val>
            <right_val>6.8291670083999634e-01</right_val></_></_>
        <_>
          <!-- tree 7 -->
          <_>
            <!-- root node -->
            <feature>
              <rects>
                <_>
                  23 0 1 2 -1.</_>
                <_>
                  23 1 1 1 2.</_></rects>
              <tilted>0</tilted></feature>
            <threshold>-4.6909399679861963e-04</threshold>
            <left_node>1</left_node>
            <right_val>1.7483089864253998e-01</right_val></_>
          <_>
            <!-- node 1 -->
            <feature>
              <rects>
                <_>
                  20 0 4 2 -1.</_>
                <_>
                  22 0 2 1 2.</_>
                <_>
                  20 1 2 1 2.</_></rects>
              <tilted>0</tilted></feature>
            <threshold>3.7766509922221303e-04</threshold>
            <left_val>2.1209679543972015e-01</left_val>
            <right_val>-3.9008989930152893e-01</right_val></_></_></trees>
      <stage_threshold>-1.4479990005493164e+00</stage_threshold>
      <parent>0</parent>
      <next>-1</next></_>
    <_>
      <!-- stage 2 -->
      <trees>
        <_>
          <!-- tree 0 -->
          <_>
            <!-- root node -->
            <feature>
              <rects>
                <_>
                  0 0 24 24 -1.</_>
                <_>
                  0 12 24 12 2.</_></rects>
              <tilted>0</tilted></feature>
            <threshold>-5.7195031642913818e-01</threshold>
            <left_val>-7.2819060087203979e-01</left_val>
            <right_node>1</right_node></_>
          <_>
            <!-- node 1 -->
            <feature>
              <rects>
                <_>
                  0 3 15 16 -1.</_>
                <_>
                  0 11 15 8 2.</_></rects>
              <tilted>0</tilted></feature>
            <threshold>1.0798410326242447e-01</threshold>
            <left_val>5.4718798398971558e-01</left_val>
            <right_val>-6.8925201892852783e-01</right_val></_></_>
        <_>
          <!-- tree 1 -->
          <_>
            <!-- root node -->
            <feature>
              <rects>
                <_>
                  9 8 6 3 -1.</_>
                <_>
                  11 8 2 3 3.</_></rects>
              <tilted>0</tilted></feature>
            <threshold>4.7373888082802296e-03</threshold>
            <left_node>1</left_node>
            <right_val>5.3772300481796265e-01</right_val></_>
          <_>
            <!-- node 1 -->
            <feature>
              <rects>
                <_>
                  13 6 3 4 -1.</_>
                <_>
                  14 6 1 4 3.</_></rects>
              <tilted>0</tilted></feature>
            <threshold>-3.9823241531848907e-03</threshold>
            <left_val>6.4304441213607788e-01</left_val>
            <right_val>-1.6656219959259033e-01</right_val></_></_>
        <_>
          <!-- tree 2 -->
          <_>
            <!-- root node -->
            <feature>
              <rects>
                <_>
                  8 5 3 6 -1.</_>
                <_>
                  9 5 1 6 3.</_></rects>
              <tilted>0</tilted></feature>
            <threshold>5.3903600201010704e-03</threshold>
            <left_node>1</left_node>
            <right_val>7.8043878078460693e-01</right_val></_>
          <_>
            <!-- node 1 -->
            <feature>
              <rects>
                <_>
                  8 7 3 3 -1.</_>
                <_>
                  9 7 1 3 3.</_></rects>
              <tilted>0</tilted></feature>
            <threshold>-4.0459469892084599e-03</threshold>
            <left_val>7.2146129608154297e-01</left_val>
            <right_val>-4.8483130335807800e-01</right_val></_></_>
        <_>
          <!-- tree 3 -->
          <_>
            <!-- root node -->
            <feature>
              <rects>
                <_>
                  21 0 3 8 -1.</_>
                <_>
                  21 4 3 4 2.</_></rects>
              <tilted>0</tilted></feature>
            <threshold>-4.5494129881262779e-03</threshold>
            <left_val>-4.0457171201705933e-01</left_val>
            <right_node>1</right_node></_>
          <_>
            <!-- node 1 -->
            <feature>
              <rects>
                <_>
                  23 2 1 2 -1.</_>
                <_>
                  23 3 1 1 2.</_></rects>
              <tilted>0</tilted></feature>
            <threshold>2.6828888803720474e-04</threshold>
            <left_val>1.6617509722709656e-01</left_val>
            <right_val>-5.8099997043609619e-01</right_val></_></_>
        <_>
          <!-- tree 4 -->
          <_>
            <!-- root node -->
            <feature>
              <rects>
                <_>
                  1 5 1 2 -1.</_>
                <_>
                  1 6 1 1 2.</_></rects>
              <tilted>0</tilted></feature>
            <threshold>-2.1168180683162063e-04</threshold>
            <left_val>-3.8150009512901306e-01</left_val>
            <right_node>1</right_node></_>
          <_>
            <!-- node 1 -->
            <feature>
              <rects>
                <_>
                  1 9 22 4 -1.</_>
                <_>
                  12 9 11 4 2.</_></rects>
              <tilted>0</tilted></feature>
            <threshold>6.6355757415294647e-02</threshold>
            <left_val>4.9080631136894226e-01</left_val>
            <right_val>-7.4091827869415283e-01</right_val></_></_>
        <_>
          <!-- tree 5 -->
          <_>
            <!-- root node -->
            <feature>
              <rects>
                <_>
                  17 13 2 2 -1.</_>
                <_>
                  17 13 1 2 2.</_></rects>
              <tilted>0</tilted></feature>
            <threshold>2.1984761115163565e-03</threshold>
            <left_node>1</left_node>
            <right_val>6.8719810247421265e-01</right_val></_>
          <_>
            <!-- node 1 -->
            <feature>
              <rects>
                <_>
                  17 9 2 14 -1.</_>
                <_>
                  17 9 1 14 2.</_></rects>
              <tilted>0</tilted></feature>
            <threshold>-8.1064142286777496e-03</threshold>
            <left_val>6.4151191711425781e-01</left_val>
            <right_val>-1.0562200099229813e-01</right_val></_></_>
        <_>
          <!-- tree 6 -->
          <_>
            <!-- root node -->
            <feature>
              <rects>
                <_>
                  10 12 1 3 -1.</_>
                <_>
                  10 13 1 1 3.</_></rects>
              <tilted>0</tilted></feature>
            <threshold>-2.7992620598524809e-03</threshold>
            <left_val>8.0212008953094482e-01</left_val>
            <right_node>1</right_node></_>
          <_>
            <!-- node 1 -->
            <feature>
              <rects>
                <_>
                  5 12 2 3 -1.</_>
                <_>
                  6 12 1 3 2.</_></rects>
              <tilted>0</tilted></feature>
            <threshold>2.5791700463742018e-03</threshold>
            <left_val>-4.2250880599021912e-01</left_val>
            <right_val>6.1036121845245361e-01</right_val></_></_>
        <_>
          <!-- tree 7 -->
          <_>
            <!-- root node -->
            <feature>
              <rects>
                <_>
                  15 3 9 21 -1.</_>
                <_>
                  18 3 3 21 3.</_></rects>
              <tilted>0</tilted></feature>
            <threshold>6.6429063677787781e-02</threshold>
            <left_node>1</left_node>
            <right_val>7.0960098505020142e-01</right_val></_>
          <_>
            <!-- node 1 -->
            <feature>
              <rects>
                <_>
                  15 8 3 3 -1.</_>
                <_>
                  16 8 1 3 3.</_></rects>
              <tilted>0</tilted></feature>
            <threshold>2.9463239479809999e-03</threshold>
            <left_val>-8.5202760994434357e-02</left_val>
            <right_val>6.4066171646118164e-01</right_val></_></_>
        <_>
          <!-- tree 8 -->
          <_>
            <!-- root node -->
            <feature>
              <rects>
                <_>
                  4 2 3 16 -1.</_>
                <_>
                  5 2 1 16 3.</_></rects>
              <tilted>0</tilted></feature>
            <threshold>8.4222741425037384e-03</threshold>
            <left_node>1</left_node>
            <right_val>7.8395390510559082e-01</right_val></_>
          <_>
            <!-- node 1 -->
            <feature>
              <rects>
                <_>
                  8 12 7 3 -1.</_>
                <_>
                  8 13 7 1 3.</_></rects>
              <tilted>0</tilted></feature>
            <threshold>7.0814331993460655e-03</threshold>
            <left_val>-4.2513269186019897e-01</left_val>
            <right_val>4.7211408615112305e-01</right_val></_></_>
        <_>
          <!-- tree 9 -->
          <_>
            <!-- root node -->
            <feature>
              <rects>
                <_>
                  1 0 23 24 -1.</_>
                <_>
                  1 12 23 12 2.</_></rects>
              <tilted>0</tilted></feature>
            <threshold>-7.0030671358108521e-01</threshold>
            <left_val>-9.1671198606491089e-01</left_val>
            <right_node>1</right_node></_>
          <_>
            <!-- node 1 -->
            <feature>
              <rects>
                <_>
                  15 8 3 4 -1.</_>
                <_>
                  16 8 1 4 3.</_></rects>
              <tilted>0</tilted></feature>
            <threshold>-2.8945100493729115e-03</threshold>
            <left_val>5.2704489231109619e-01</left_val>
            <right_val>-1.4454220235347748e-01</right_val></_></_></trees>
      <stage_threshold>-1.8666729927062988e+00</stage_threshold>
      <parent>1</parent>
      <next>-1</next></_>
    <_>
      <!-- stage 3 -->
      <trees>
        <_>
          <!-- tree 0 -->
          <_>
            <!-- root node -->
            <feature>
              <rects>
                <_>
                  1 12 10 9 -1.</_>
                <_>
                  6 12 5 9 2.</_></rects>
              <tilted>0</tilted></feature>
            <threshold>-5.2984580397605896e-02</threshold>
            <left_val>6.6718447208404541e-01</left_val>
            <right_node>1</right_node></_>
          <_>
            <!-- node 1 -->
            <feature>
              <rects>
                <_>
                  2 2 18 16 -1.</_>
                <_>
                  8 2 6 16 3.</_></rects>
              <tilted>0</tilted></feature>
            <threshold>1.0289189964532852e-01</threshold>
            <left_val>-4.2549419403076172e-01</left_val>
            <right_val>3.5616418719291687e-01</right_val></_></_>
        <_>
          <!-- tree 1 -->
          <_>
            <!-- root node -->
            <feature>
              <rects>
                <_>
                  16 6 2 6 -1.</_>
                <_>
                  17 6 1 3 2.</_>
                <_>
                  16 9 1 3 2.</_></rects>
              <tilted>0</tilted></feature>
            <threshold>-2.4954820983111858e-03</threshold>
            <left_val>4.4209429621696472e-01</left_val>
            <right_node>1</right_node></_>
          <_>
            <!-- node 1 -->
            <feature>
              <rects>
                <_>
                  14 9 2 2 -1.</_>
                <_>
                  15 9 1 1 2.</_>
                <_>
                  14 10 1 1 2.</_></rects>
              <tilted>0</tilted></feature>
            <threshold>1.3040070189163089e-03</threshold>
            <left_val>-9.0724423527717590e-02</left_val>
            <right_val>5.6577551364898682e-01</right_val></_></_>
        <_>
          <!-- tree 2 -->
          <_>
            <!-- root node -->
            <feature>
              <rects>
                <_>
                  9 9 6 2 -1.</_>
                <_>
                  9 10 6 1 2.</_></rects>
              <tilted>0</tilted></feature>
            <threshold>-4.1659511625766754e-03</threshold>
            <left_val>4.4077891111373901e-01</left_val>
            <right_node>1</right_node></_>
          <_>
            <!-- node 1 -->
            <feature>
              <rects>
                <_>
                  7 9 2 6 -1.</_>
                <_>
                  7 9 1 3 2.</_>
                <_>
                  8 12 1 3 2.</_></rects>
              <tilted>0</tilted></feature>
            <threshold>-3.2866590190678835e-03</threshold>
            <left_val>4.9595838785171509e-01</left_val>
            <right_val>-4.8261499404907227e-01</right_val></_></_>
        <_>
          <!-- tree 3 -->
          <_>
            <!-- root node -->
            <feature>
              <rects>
                <_>
                  13 8 2 6 -1.</_>
                <_>
                  14 8 1 3 2.</_>
                <_>
                  13 11 1 3 2.</_></rects>
              <tilted>0</tilted></feature>
            <threshold>-4.7794440761208534e-03</threshold>
            <left_val>6.8432837724685669e-01</left_val>
            <right_node>1</right_node></_>
          <_>
            <!-- node 1 -->
            <feature>
              <rects>
                <_>
                  14 6 2 4 -1.</_>
                <_>
                  15 6 1 2 2.</_>
                <_>
                  14 8 1 2 2.</_></rects>
              <tilted>0</tilted></feature>
            <threshold>3.1307539902627468e-03</threshold>
            <left_val>-9.3075573444366455e-02</left_val>
            <right_val>6.0343062877655029e-01</right_val></_></_>
        <_>
          <!-- tree 4 -->
          <_>
            <!-- root node -->
            <feature>
              <rects>
                <_>
                  0 9 2 2 -1.</_>
                <_>
                  1 9 1 2 2.</_></rects>
              <tilted>0</tilted></feature>
            <threshold>-4.1001249337568879e-04</threshold>
            <left_val>-5.9755831956863403e-01</left_val>
            <right_node>1</right_node></_>
          <_>
            <!-- node 1 -->
            <feature>
              <rects>
                <_>
                  0 9 2 1 -1.</_>
                <_>
                  1 9 1 1 2.</_></rects>
              <tilted>0</tilted></feature>
            <threshold>1.9428519590292126e-04</threshold>
            <left_val>3.8591679930686951e-01</left_val>
            <right_val>-3.9168649911880493e-01</right_val></_></_>
        <_>
          <!-- tree 5 -->
          <_>
            <!-- root node -->
            <feature>
              <rects>
                <_>
                  16 7 2 4 -1.</_>
                <_>
                  17 7 1 2 2.</_>
                <_>
                  16 9 1 2 2.</_></rects>
              <tilted>0</tilted></feature>
            <threshold>3.6354870535433292e-03</threshold>
            <left_val>-1.0477189719676971e-01</left_val>
            <right_node>1</right_node></_>
          <_>
            <!-- node 1 -->
            <feature>
              <rects>
                <_>
                  15 7 2 4 -1.</_>
                <_>
                  16 7 1 2 2.</_>
                <_>
                  15 9 1 2 2.</_></rects>
              <tilted>0</tilted></feature>
            <threshold>-2.6838530320674181e-03</threshold>
            <left_val>6.7195427417755127e-01</left_val>
            <right_val>-1.3349239528179169e-01</right_val></_></_>
        <_>
          <!-- tree 6 -->
          <_>
            <!-- root node -->
            <feature>
              <rects>
                <_>
                  6 8 3 1 -1.</_>
                <_>
                  7 8 1 1 3.</_></rects>
              <tilted>0</tilted></feature>
            <threshold>1.0831339750438929e-03</threshold>
            <left_node>1</left_node>
            <right_val>5.7346457242965698e-01</right_val></_>
          <_>
            <!-- node 1 -->
            <feature>
              <rects>
                <_>
                  11 8 2 2 -1.</_>
                <_>
                  11 8 1 1 2.</_>
                <_>
                  12 9 1 1 2.</_></rects>
              <tilted>0</tilted></feature>
            <threshold>-1.2984940549358726e-03</threshold>
            <left_val>5.9900462627410889e-01</left_val>
            <right_val>-2.6567688584327698e-01</right_val></_></_>
        <_>
          <!-- tree 7 -->
          <_>
            <!-- root node -->
            <feature>
              <rects>
                <_>
                  11 8 2 2 -1.</_>
                <_>
                  12 8 1 1 2.</_>
                <_>
                  11 9 1 1 2.</_></rects>
              <tilted>0</tilted></feature>
            <threshold>-1.3961569638922811e-03</threshold>
            <left_node>1</left_node>
            <right_val>-1.2085270136594772e-01</right_val></_>
          <_>
            <!-- node 1 -->
            <feature>
              <rects>
                <_>
                  14 6 2 4 -1.</_>
                <_>
                  15 6 1 2 2.</_>
                <_>
                  14 8 1 2 2.</_></rects>
              <tilted>0</tilted></feature>
            <threshold>-1.6086050309240818e-03</threshold>
            <left_val>4.4737121462821960e-01</left_val>
            <right_val>-7.6763503253459930e-02</right_val></_></_>
        <_>
          <!-- tree 8 -->
          <_>
            <!-- root node -->
            <feature>
              <rects>
                <_>
                  0 1 1 2 -1.</_>
                <_>
                  0 2 1 1 2.</_></rects>
              <tilted>0</tilted></feature>
            <threshold>-3.1817040871828794e-04</threshold>
            <left_val>-3.9626958966255188e-01</left_val>
            <right_node>1</right_node></_>
          <_>
            <!-- node 1 -->
            <feature>
              <rects>
                <_>
                  0 1 1 2 -1.</_>
                <_>
                  0 2 1 1 2.</_></rects>
              <tilted>0</tilted></feature>
            <threshold>3.3422169508412480e-04</threshold>
            <left_val>5.6567037105560303e-01</left_val>
            <right_val>-3.1207650899887085e-01</right_val></_></_>
        <_>
          <!-- tree 9 -->
          <_>
            <!-- root node -->
            <feature>
              <rects>
                <_>
                  16 8 3 6 -1.</_>
                <_>
                  17 8 1 6 3.</_></rects>
              <tilted>0</tilted></feature>
            <threshold>4.1163428686559200e-03</threshold>
            <left_node>1</left_node>
            <right_val>4.3669670820236206e-01</right_val></_>
          <_>
            <!-- node 1 -->
            <feature>
              <rects>
                <_>
                  16 8 2 12 -1.</_>
                <_>
                  17 8 1 6 2.</_>
                <_>
                  16 14 1 6 2.</_></rects>
              <tilted>0</tilted></feature>
            <threshold>7.2924317792057991e-03</threshold>
            <left_val>-5.8389350771903992e-02</left_val>
            <right_val>5.6565231084823608e-01</right_val></_></_>
        <_>
          <!-- tree 10 -->
          <_>
            <!-- root node -->
            <feature>
              <rects>
                <_>
                  8 9 3 1 -1.</_>
                <_>
                  9 9 1 1 3.</_></rects>
              <tilted>0</tilted></feature>
            <threshold>1.8612940330058336e-03</threshold>
            <left_node>1</left_node>
            <right_val>6.5207272768020630e-01</right_val></_>
          <_>
            <!-- node 1 -->
            <feature>
              <rects>
                <_>
                  10 14 4 1 -1.</_>
                <_>
                  12 14 2 1 2.</_></rects>
              <tilted>0</tilted></feature>
            <threshold>2.6077709626406431e-03</threshold>
            <left_val>-3.8201379776000977e-01</left_val>
            <right_val>6.2703800201416016e-01</right_val></_></_>
        <_>
          <!-- tree 11 -->
          <_>
            <!-- root node -->
            <feature>
              <rects>
                <_>
                  10 1 4 20 -1.</_>
                <_>
                  10 11 4 10 2.</_></rects>
              <tilted>0</tilted></feature>
            <threshold>-5.5072139948606491e-02</threshold>
            <left_val>4.7037220001220703e-01</left_val>
            <right_node>1</right_node></_>
          <_>
            <!-- node 1 -->
            <feature>
              <rects>
                <_>
                  7 7 12 8 -1.</_>
                <_>
                  7 7 6 8 2.</_></rects>
              <tilted>0</tilted></feature>
            <threshold>-5.2684929221868515e-02</threshold>
            <left_val>-6.0097861289978027e-01</left_val>
            <right_val>9.6286296844482422e-02</right_val></_></_>
        <_>
          <!-- tree 12 -->
          <_>
            <!-- root node -->
            <feature>
              <rects>
                <_>
                  5 6 2 8 -1.</_>
                <_>
                  5 6 1 4 2.</_>
                <_>
                  6 10 1 4 2.</_></rects>
              <tilted>0</tilted></feature>
            <threshold>7.1053639985620975e-03</threshold>
            <left_node>1</left_node>
            <right_val>7.7912312746047974e-01</right_val></_>
          <_>
            <!-- node 1 -->
            <feature>
              <rects>
                <_>
                  6 9 4 4 -1.</_>
                <_>
                  6 9 2 2 2.</_>
                <_>
                  8 11 2 2 2.</_></rects>
              <tilted>0</tilted></feature>
            <threshold>5.2625248208642006e-03</threshold>
            <left_val>-4.4374990463256836e-01</left_val>
            <right_val>3.8008558750152588e-01</right_val></_></_>
        <_>
          <!-- tree 13 -->
          <_>
            <!-- root node -->
            <feature>
              <rects>
                <_>
                  3 10 18 4 -1.</_>
                <_>
                  9 10 6 4 3.</_></rects>
              <tilted>0</tilted></feature>
            <threshold>-2.8002109378576279e-02</threshold>
            <left_val>5.1537060737609863e-01</left_val>
            <right_node>1</right_node></_>
          <_>
            <!-- node 1 -->
            <feature>
              <rects>
                <_>
                  10 9 10 8 -1.</_>
                <_>
                  10 13 10 4 2.</_></rects>
              <tilted>0</tilted></feature>
            <threshold>-1.1669489741325378e-01</threshold>
            <left_val>-9.1147351264953613e-01</left_val>
            <right_val>3.7855219095945358e-02</right_val></_></_></trees>
      <stage_threshold>-1.3758749961853027e+00</stage_threshold>
      <parent>2</parent>
      <next>-1</next></_>
    <_>
      <!-- stage 4 -->
      <trees>
        <_>
          <!-- tree 0 -->
          <_>
            <!-- root node -->
            <feature>
              <rects>
                <_>
                  8 8 6 14 -1.</_>
                <_>
                  8 15 6 7 2.</_></rects>
              <tilted>0</tilted></feature>
            <threshold>-3.7121418863534927e-02</threshold>
            <left_val>5.2842062711715698e-01</left_val>
            <right_node>1</right_node></_>
          <_>
            <!-- node 1 -->
            <feature>
              <rects>
                <_>
                  9 11 3 1 -1.</_>
                <_>
                  10 11 1 1 3.</_></rects>
              <tilted>0</tilted></feature>
            <threshold>1.9029410323128104e-03</threshold>
            <left_val>-5.3382611274719238e-01</left_val>
            <right_val>5.3051942586898804e-01</right_val></_></_>
        <_>
          <!-- tree 1 -->
          <_>
            <!-- root node -->
            <feature>
              <rects>
                <_>
                  11 7 3 1 -1.</_>
                <_>
                  12 7 1 1 3.</_></rects>
              <tilted>0</tilted></feature>
            <threshold>1.9954768940806389e-03</threshold>
            <left_node>1</left_node>
            <right_val>6.6689068078994751e-01</right_val></_>
          <_>
            <!-- node 1 -->
            <feature>
              <rects>
                <_>
                  14 9 2 2 -1.</_>
                <_>
                  15 9 1 1 2.</_>
                <_>
                  14 10 1 1 2.</_></rects>
              <tilted>0</tilted></feature>
            <threshold>1.2842910364270210e-03</threshold>
            <left_val>-1.0672409832477570e-01</left_val>
            <right_val>5.8661818504333496e-01</right_val></_></_>
        <_>
          <!-- tree 2 -->
          <_>
            <!-- root node -->
            <feature>
              <rects>
                <_>
                  10 7 3 1 -1.</_>
                <_>
                  11 7 1 1 3.</_></rects>
              <tilted>0</tilted></feature>
            <threshold>2.0174670498818159e-03</threshold>
            <left_node>1</left_node>
            <right_val>8.4427040815353394e-01</right_val></_>
          <_>
            <!-- node 1 -->
            <feature>
              <rects>
                <_>
                  8 9 2 2 -1.</_>
                <_>
                  8 9 1 1 2.</_>
                <_>
                  9 10 1 1 2.</_></rects>
              <tilted>0</tilted></feature>
            <threshold>-1.4369189739227295e-03</threshold>
            <left_val>7.0793569087982178e-01</left_val>
            <right_val>-4.8182180523872375e-01</right_val></_></_>
        <_>
          <!-- tree 3 -->
          <_>
            <!-- root node -->
            <feature>
              <rects>
                <_>
                  13 6 2 2 -1.</_>
                <_>
                  14 6 1 1 2.</_>
                <_>
                  13 7 1 1 2.</_></rects>
              <tilted>0</tilted></feature>
            <threshold>1.5947179635986686e-03</threshold>
            <left_node>1</left_node>
            <right_val>7.1284538507461548e-01</right_val></_>
          <_>
            <!-- node 1 -->
            <feature>
              <rects>
                <_>
                  13 6 2 2 -1.</_>
                <_>
                  14 6 1 1 2.</_>
                <_>
                  13 7 1 1 2.</_></rects>
              <tilted>0</tilted></feature>
            <threshold>1.5947179635986686e-03</threshold>
            <left_val>-5.4001480340957642e-02</left_val>
            <right_val>7.1284538507461548e-01</right_val></_></_>
        <_>
          <!-- tree 4 -->
          <_>
            <!-- root node -->
            <feature>
              <rects>
                <_>
                  9 6 2 2 -1.</_>
                <_>
                  9 6 1 1 2.</_>
                <_>
                  10 7 1 1 2.</_></rects>
              <tilted>0</tilted></feature>
            <threshold>8.2948477938771248e-04</threshold>
            <left_node>1</left_node>
            <right_val>7.0478218793869019e-01</right_val></_>
          <_>
            <!-- node 1 -->
            <feature>
              <rects>
                <_>
                  9 6 2 2 -1.</_>
                <_>
                  9 6 1 1 2.</_>
                <_>
                  10 7 1 1 2.</_></rects>
              <tilted>0</tilted></feature>
            <threshold>-1.4273610431700945e-03</threshold>
            <left_val>7.2494947910308838e-01</left_val>
            <right_val>-3.4663328528404236e-01</right_val></_></_>
        <_>
          <!-- tree 5 -->
          <_>
            <!-- root node -->
            <feature>
              <rects>
                <_>
                  12 22 6 2 -1.</_>
                <_>
                  12 22 3 2 2.</_></rects>
              <tilted>0</tilted></feature>
            <threshold>-1.2798970565199852e-03</threshold>
            <left_node>1</left_node>
            <right_val>1.0009639710187912e-01</right_val></_>
          <_>
            <!-- node 1 -->
            <feature>
              <rects>
                <_>
                  23 0 1 2 -1.</_>
                <_>
                  23 1 1 1 2.</_></rects>
              <tilted>0</tilted></feature>
            <threshold>1.8578430172055960e-04</threshold>
            <left_val>1.6139869391918182e-01</left_val>
            <right_val>-4.7131058573722839e-01</right_val></_></_>
        <_>
          <!-- tree 6 -->
          <_>
            <!-- root node -->
            <feature>
              <rects>
                <_>
                  6 22 6 2 -1.</_>
                <_>
                  9 22 3 2 2.</_></rects>
              <tilted>0</tilted></feature>
            <threshold>1.6942810034379363e-03</threshold>
            <left_node>1</left_node>
            <right_val>-5.7097619771957397e-01</right_val></_>
          <_>
            <!-- node 1 -->
            <feature>
              <rects>
                <_>
                  10 3 2 10 -1.</_>
                <_>
                  10 3 1 5 2.</_>
                <_>
                  11 8 1 5 2.</_></rects>
              <tilted>0</tilted></feature>
            <threshold>2.8024939820170403e-03</threshold>
            <left_val>3.8436529575847089e-04</left_val>
            <right_val>7.2243320941925049e-01</right_val></_></_>
        <_>
          <!-- tree 7 -->
          <_>
            <!-- root node -->
            <feature>
              <rects>
                <_>
                  17 10 2 4 -1.</_>
                <_>
                  18 10 1 2 2.</_>
                <_>
                  17 12 1 2 2.</_></rects>
              <tilted>0</tilted></feature>
            <threshold>-2.6561690028756857e-03</threshold>
            <left_node>1</left_node>
            <right_val>-1.0865499824285507e-01</right_val></_>
          <_>
            <!-- node 1 -->
            <feature>
              <rects>
                <_>
                  13 12 2 2 -1.</_>
                <_>
                  14 12 1 1 2.</_>
                <_>
                  13 13 1 1 2.</_></rects>
              <tilted>0</tilted></feature>
            <threshold>-1.3143529649823904e-03</threshold>
            <left_val>6.0863482952117920e-01</left_val>
            <right_val>-8.0446317791938782e-02</right_val></_></_>
        <_>
          <!-- tree 8 -->
          <_>
            <!-- root node -->
            <feature>
              <rects>
                <_>
                  5 0 2 1 -1.</_>
                <_>
                  6 0 1 1 2.</_></rects>
              <tilted>0</tilted></feature>
            <threshold>2.1672679577022791e-04</threshold>
            <left_node>1</left_node>
            <right_val>-4.0441969037055969e-01</right_val></_>
          <_>
            <!-- node 1 -->
            <feature>
              <rects>
                <_>
                  0 10 24 12 -1.</_>
                <_>
                  0 14 24 4 3.</_></rects>
              <tilted>0</tilted></feature>
            <threshold>1.8586470186710358e-01</threshold>
            <left_val>4.1920921206474304e-01</left_val>
            <right_val>-8.3452922105789185e-01</right_val></_></_>
        <_>
          <!-- tree 9 -->
          <_>
            <!-- root node -->
            <feature>
              <rects>
                <_>
                  11 8 2 2 -1.</_>
                <_>
                  12 8 1 1 2.</_>
                <_>
                  11 9 1 1 2.</_></rects>
              <tilted>0</tilted></feature>
            <threshold>1.2603990035131574e-03</threshold>
            <left_val>-1.8131160736083984e-01</left_val>
            <right_node>1</right_node></_>
          <_>
            <!-- node 1 -->
            <feature>
              <rects>
                <_>
                  11 8 2 2 -1.</_>
                <_>
                  12 8 1 1 2.</_>
                <_>
                  11 9 1 1 2.</_></rects>
              <tilted>0</tilted></feature>
            <threshold>1.2603990035131574e-03</threshold>
            <left_val>-1.8131160736083984e-01</left_val>
            <right_val>6.9653308391571045e-01</right_val></_></_>
        <_>
          <!-- tree 10 -->
          <_>
            <!-- root node -->
            <feature>
              <rects>
                <_>
                  11 8 2 2 -1.</_>
                <_>
                  11 8 1 1 2.</_>
                <_>
                  12 9 1 1 2.</_></rects>
              <tilted>0</tilted></feature>
            <threshold>8.7799970060586929e-04</threshold>
            <left_node>1</left_node>
            <right_val>5.8488899469375610e-01</right_val></_>
          <_>
            <!-- node 1 -->
            <feature>
              <rects>
                <_>
                  9 13 6 8 -1.</_>
                <_>
                  9 17 6 4 2.</_></rects>
              <tilted>0</tilted></feature>
            <threshold>-1.6919059678912163e-02</threshold>
            <left_val>2.9519578814506531e-01</left_val>
            <right_val>-5.0694900751113892e-01</right_val></_></_></trees>
      <stage_threshold>-1.6543029546737671e+00</stage_threshold>
      <parent>3</parent>
      <next>-1</next></_>
    <_>
      <!-- stage 5 -->
      <trees>
        <_>
          <!-- tree 0 -->
          <_>
            <!-- root node -->
            <feature>
              <rects>
                <_>
                  1 10 1 2 -1.</_>
                <_>
                  1 11 1 1 2.</_></rects>
              <tilted>0</tilted></feature>
            <threshold>-3.4244891139678657e-04</threshold>
            <left_val>-5.9878599643707275e-01</left_val>
            <right_node>1</right_node></_>
          <_>
            <!-- node 1 -->
            <feature>
              <rects>
                <_>
                  1 10 1 2 -1.</_>
                <_>
                  1 11 1 1 2.</_></rects>
              <tilted>0</tilted></feature>
            <threshold>1.9921860075555742e-04</threshold>
            <left_val>6.0981070995330811e-01</left_val>
            <right_val>-3.9422369003295898e-01</right_val></_></_>
        <_>
          <!-- tree 1 -->
          <_>
            <!-- root node -->
            <feature>
              <rects>
                <_>
                  21 8 1 2 -1.</_>
                <_>
                  21 9 1 1 2.</_></rects>
              <tilted>0</tilted></feature>
            <threshold>1.5654620074201375e-04</threshold>
            <left_node>1</left_node>
            <right_val>-3.3905848860740662e-01</right_val></_>
          <_>
            <!-- node 1 -->
            <feature>
              <rects>
                <_>
                  8 10 9 1 -1.</_>
                <_>
                  11 10 3 1 3.</_></rects>
              <tilted>0</tilted></feature>
            <threshold>1.1606950312852859e-02</threshold>
            <left_val>-6.4871713519096375e-02</left_val>
            <right_val>5.7238239049911499e-01</right_val></_></_>
        <_>
          <!-- tree 2 -->
          <_>
            <!-- root node -->
            <feature>
              <rects>
                <_>
                  2 8 1 2 -1.</_>
                <_>
                  2 9 1 1 2.</_></rects>
              <tilted>0</tilted></feature>
            <threshold>4.7225569142028689e-04</threshold>
            <left_node>1</left_node>
            <right_val>-4.7104310989379883e-01</right_val></_>
          <_>
            <!-- node 1 -->
            <feature>
              <rects>
                <_>
                  3 0 2 1 -1.</_>
                <_>
                  4 0 1 1 2.</_></rects>
              <tilted>0</tilted></feature>
            <threshold>-4.4506200356408954e-04</threshold>
            <left_val>-4.1885519027709961e-01</left_val>
            <right_val>3.8355189561843872e-01</right_val></_></_>
        <_>
          <!-- tree 3 -->
          <_>
            <!-- root node -->
            <feature>
              <rects>
                <_>
                  0 19 24 2 -1.</_>
                <_>
                  8 19 8 2 3.</_></rects>
              <tilted>0</tilted></feature>
            <threshold>-3.8090180605649948e-02</threshold>
            <left_val>5.3478521108627319e-01</left_val>
            <right_node>1</right_node></_>
          <_>
            <!-- node 1 -->
            <feature>
              <rects>
                <_>
                  12 10 4 6 -1.</_>
                <_>
                  12 12 4 2 3.</_></rects>
              <tilted>0</tilted></feature>
            <threshold>1.8675249069929123e-02</threshold>
            <left_val>-7.7832810580730438e-02</left_val>
            <right_val>4.6088218688964844e-01</right_val></_></_>
        <_>
          <!-- tree 4 -->
          <_>
            <!-- root node -->
            <feature>
              <rects>
                <_>
                  10 10 3 6 -1.</_>
                <_>
                  10 12 3 2 3.</_></rects>
              <tilted>0</tilted></feature>
            <threshold>-9.9330460652709007e-03</threshold>
            <left_val>3.8138449192047119e-01</left_val>
            <right_node>1</right_node></_>
          <_>
            <!-- node 1 -->
            <feature>
              <rects>
                <_>
                  4 12 15 2 -1.</_>
                <_>
                  9 12 5 2 3.</_></rects>
              <tilted>0</tilted></feature>
            <threshold>4.6319410204887390e-02</threshold>
            <left_val>-4.5714899897575378e-01</left_val>
            <right_val>7.0877832174301147e-01</right_val></_></_>
        <_>
          <!-- tree 5 -->
          <_>
            <!-- root node -->
            <feature>
              <rects>
                <_>
                  8 8 15 15 -1.</_>
                <_>
                  13 8 5 15 3.</_></rects>
              <tilted>0</tilted></feature>
            <threshold>-1.2454699724912643e-01</threshold>
            <left_val>5.0465178489685059e-01</left_val>
            <right_node>1</right_node></_>
          <_>
            <!-- node 1 -->
            <feature>
              <rects>
                <_>
                  5 6 18 4 -1.</_>
                <_>
                  11 6 6 4 3.</_></rects>
              <tilted>0</tilted></feature>
            <threshold>3.1663101166486740e-02</threshold>
            <left_val>-3.8852900266647339e-02</left_val>
            <right_val>1.7929069697856903e-01</right_val></_></_>
        <_>
          <!-- tree 6 -->
          <_>
            <!-- root node -->
            <feature>
              <rects>
                <_>
                  1 8 15 15 -1.</_>
                <_>
                  6 8 5 15 3.</_></rects>
              <tilted>0</tilted></feature>
            <threshold>-1.2349969893693924e-01</threshold>
            <left_val>6.5130412578582764e-01</left_val>
            <right_node>1</right_node></_>
          <_>
            <!-- node 1 -->
            <feature>
              <rects>
                <_>
                  1 6 18 4 -1.</_>
                <_>
                  7 6 6 4 3.</_></rects>
              <tilted>0</tilted></feature>
            <threshold>5.1014181226491928e-02</threshold>
            <left_val>-4.3053901195526123e-01</left_val>
            <right_val>3.0798938870429993e-01</right_val></_></_>
        <_>
          <!-- tree 7 -->
          <_>
            <!-- root node -->
            <feature>
              <rects>
                <_>
                  19 0 2 1 -1.</_>
                <_>
                  19 0 1 1 2.</_></rects>
              <tilted>0</tilted></feature>
            <threshold>3.9893059874884784e-04</threshold>
            <left_node>1</left_node>
            <right_val>-4.2802929878234863e-01</right_val></_>
          <_>
            <!-- node 1 -->
            <feature>
              <rects>
                <_>
                  14 4 2 3 -1.</_>
                <_>
                  14 5 2 1 3.</_></rects>
              <tilted>0</tilted></feature>
            <threshold>3.5756649449467659e-03</threshold>
            <left_val>-3.6480158567428589e-02</left_val>
            <right_val>3.0768591165542603e-01</right_val></_></_>
        <_>
          <!-- tree 8 -->
          <_>
            <!-- root node -->
            <feature>
              <rects>
                <_>
                  6 11 12 7 -1.</_>
                <_>
                  10 11 4 7 3.</_></rects>
              <tilted>0</tilted></feature>
            <threshold>-1.5234840102493763e-02</threshold>
            <left_val>4.4700288772583008e-01</left_val>
            <right_node>1</right_node></_>
          <_>
            <!-- node 1 -->
            <feature>
              <rects>
                <_>
                  2 0 4 1 -1.</_>
                <_>
                  4 0 2 1 2.</_></rects>
              <tilted>0</tilted></feature>
            <threshold>2.2066179662942886e-03</threshold>
            <left_val>3.5135660320520401e-02</left_val>
            <right_val>-8.4121292829513550e-01</right_val></_></_>
        <_>
          <!-- tree 9 -->
          <_>
            <!-- root node -->
            <feature>
              <rects>
                <_>
                  8 5 8 2 -1.</_>
                <_>
                  12 5 4 1 2.</_>
                <_>
                  8 6 4 1 2.</_></rects>
              <tilted>0</tilted></feature>
            <threshold>-4.8153451643884182e-03</threshold>
            <left_node>1</left_node>
            <right_val>-1.6637060046195984e-01</right_val></_>
          <_>
            <!-- node 1 -->
            <feature>
              <rects>
                <_>
                  14 8 2 4 -1.</_>
                <_>
                  15 8 1 2 2.</_>
                <_>
                  14 10 1 2 2.</_></rects>
              <tilted>0</tilted></feature>
            <threshold>3.9955098181962967e-03</threshold>
            <left_val>-8.0338448286056519e-02</left_val>
            <right_val>3.9929381012916565e-01</right_val></_></_>
        <_>
          <!-- tree 10 -->
          <_>
            <!-- root node -->
            <feature>
              <rects>
                <_>
                  5 6 10 8 -1.</_>
                <_>
                  5 10 10 4 2.</_></rects>
              <tilted>0</tilted></feature>
            <threshold>-6.6989749670028687e-02</threshold>
            <left_val>-7.3236197233200073e-01</left_val>
            <right_node>1</right_node></_>
          <_>
            <!-- node 1 -->
            <feature>
              <rects>
                <_>
                  0 6 13 15 -1.</_>
                <_>
                  0 11 13 5 3.</_></rects>
              <tilted>0</tilted></feature>
            <threshold>1.3697409629821777e-01</threshold>
            <left_val>3.1394571065902710e-01</left_val>
            <right_val>-7.4561762809753418e-01</right_val></_></_>
        <_>
          <!-- tree 11 -->
          <_>
            <!-- root node -->
            <feature>
              <rects>
                <_>
                  22 15 1 2 -1.</_>
                <_>
                  22 16 1 1 2.</_></rects>
              <tilted>0</tilted></feature>
            <threshold>4.9002957530319691e-04</threshold>
            <left_node>1</left_node>
            <right_val>-4.3956241011619568e-01</right_val></_>
          <_>
            <!-- node 1 -->
            <feature>
              <rects>
                <_>
                  16 5 2 6 -1.</_>
                <_>
                  17 5 1 3 2.</_>
                <_>
                  16 8 1 3 2.</_></rects>
              <tilted>0</tilted></feature>
            <threshold>4.8511298373341560e-03</threshold>
            <left_val>-8.7488450109958649e-02</left_val>
            <right_val>4.2499399185180664e-01</right_val></_></_>
        <_>
          <!-- tree 12 -->
          <_>
            <!-- root node -->
            <feature>
              <rects>
                <_>
                  0 12 2 2 -1.</_>
                <_>
                  0 12 1 1 2.</_>
                <_>
                  1 13 1 1 2.</_></rects>
              <tilted>0</tilted></feature>
            <threshold>-2.9247289057821035e-04</threshold>
            <left_val>-3.5395428538322449e-01</left_val>
            <right_node>1</right_node></_>
          <_>
            <!-- node 1 -->
            <feature>
              <rects>
                <_>
                  2 14 2 2 -1.</_>
                <_>
                  2 14 1 1 2.</_>
                <_>
                  3 15 1 1 2.</_></rects>
              <tilted>0</tilted></feature>
            <threshold>3.5909659345634282e-04</threshold>
            <left_val>4.0293928980827332e-01</left_val>
            <right_val>-2.8032889962196350e-01</right_val></_></_>
        <_>
          <!-- tree 13 -->
          <_>
            <!-- root node -->
            <feature>
              <rects>
                <_>
                  16 5 2 6 -1.</_>
                <_>
                  17 5 1 3 2.</_>
                <_>
                  16 8 1 3 2.</_></rects>
              <tilted>0</tilted></feature>
            <threshold>-5.4023209959268570e-03</threshold>
            <left_val>3.4352079033851624e-01</left_val>
            <right_node>1</right_node></_>
          <_>
            <!-- node 1 -->
            <feature>
              <rects>
                <_>
                  11 10 2 6 -1.</_>
                <_>
                  11 13 2 3 2.</_></rects>
              <tilted>0</tilted></feature>
            <threshold>7.5993500649929047e-03</threshold>
            <left_val>-1.2343770265579224e-01</left_val>
            <right_val>4.1270560026168823e-01</right_val></_></_>
        <_>
          <!-- tree 14 -->
          <_>
            <!-- root node -->
            <feature>
              <rects>
                <_>
                  7 11 6 6 -1.</_>
                <_>
                  7 13 6 2 3.</_></rects>
              <tilted>0</tilted></feature>
            <threshold>-2.0786430686712265e-02</threshold>
            <left_val>5.1623517274856567e-01</left_val>
            <right_node>1</right_node></_>
          <_>
            <!-- node 1 -->
            <feature>
              <rects>
                <_>
                  9 12 1 6 -1.</_>
                <_>
                  9 15 1 3 2.</_></rects>
              <tilted>0</tilted></feature>
            <threshold>-6.4835930243134499e-03</threshold>
            <left_val>4.7823959589004517e-01</left_val>
            <right_val>-3.5613301396369934e-01</right_val></_></_>
        <_>
          <!-- tree 15 -->
          <_>
            <!-- root node -->
            <feature>
              <rects>
                <_>
                  14 6 2 4 -1.</_>
                <_>
                  15 6 1 2 2.</_>
                <_>
                  14 8 1 2 2.</_></rects>
              <tilted>0</tilted></feature>
            <threshold>-5.0898818299174309e-03</threshold>
            <left_node>1</left_node>
            <right_val>-2.7149969711899757e-02</right_val></_>
          <_>
            <!-- node 1 -->
            <feature>
              <rects>
                <_>
                  16 7 3 3 -1.</_>
                <_>
                  17 7 1 3 3.</_></rects>
              <tilted>0</tilted></feature>
            <threshold>-2.3495031055063009e-03</threshold>
            <left_val>2.5700479745864868e-01</left_val>
            <right_val>-6.2482979148626328e-02</right_val></_></_>
        <_>
          <!-- tree 16 -->
          <_>
            <!-- root node -->
            <feature>
              <rects>
                <_>
                  8 6 2 4 -1.</_>
                <_>
                  8 6 1 2 2.</_>
                <_>
                  9 8 1 2 2.</_></rects>
              <tilted>0</tilted></feature>
            <threshold>1.3557999627664685e-03</threshold>
            <left_node>1</left_node>
            <right_val>4.8122888803482056e-01</right_val></_>
          <_>
            <!-- node 1 -->
            <feature>
              <rects>
                <_>
                  5 7 3 3 -1.</_>
                <_>
                  6 7 1 3 3.</_></rects>
              <tilted>0</tilted></feature>
            <threshold>2.6680510491132736e-03</threshold>
            <left_val>-3.4497019648551941e-01</left_val>
            <right_val>3.8176360726356506e-01</right_val></_></_>
        <_>
          <!-- tree 17 -->
          <_>
            <!-- root node -->
            <feature>
              <rects>
                <_>
                  20 3 2 1 -1.</_>
                <_>
                  20 3 1 1 2.</_></rects>
              <tilted>0</tilted></feature>
            <threshold>-2.5559391360729933e-04</threshold>
            <left_node>1</left_node>
            <right_val>1.6247269511222839e-01</right_val></_>
          <_>
            <!-- node 1 -->
            <feature>
              <rects>
                <_>
                  20 1 2 2 -1.</_>
                <_>
                  20 1 1 2 2.</_></rects>
              <tilted>0</tilted></feature>
            <threshold>-1.0897519532591105e-03</threshold>
            <left_val>-5.7732021808624268e-01</left_val>
            <right_val>1.2987479567527771e-01</right_val></_></_></trees>
      <stage_threshold>-1.5466619729995728e+00</stage_threshold>
      <parent>4</parent>
      <next>-1</next></_>
    <_>
      <!-- stage 6 -->
      <trees>
        <_>
          <!-- tree 0 -->
          <_>
            <!-- root node -->
            <feature>
              <rects>
                <_>
                  4 0 2 1 -1.</_>
                <_>
                  5 0 1 1 2.</_></rects>
              <tilted>0</tilted></feature>
            <threshold>-2.7187709929421544e-04</threshold>
            <left_val>-5.2892577648162842e-01</left_val>
            <right_node>1</right_node></_>
          <_>
            <!-- node 1 -->
            <feature>
              <rects>
                <_>
                  4 0 2 1 -1.</_>
                <_>
                  5 0 1 1 2.</_></rects>
              <tilted>0</tilted></feature>
            <threshold>3.6415978684090078e-04</threshold>
            <left_val>4.0147230029106140e-01</left_val>
            <right_val>-4.1859069466590881e-01</right_val></_></_>
        <_>
          <!-- tree 1 -->
          <_>
            <!-- root node -->
            <feature>
              <rects>
                <_>
                  7 15 10 9 -1.</_>
                <_>
                  7 18 10 3 3.</_></rects>
              <tilted>0</tilted></feature>
            <threshold>-4.2291060090065002e-02</threshold>
            <left_val>5.0463688373565674e-01</left_val>
            <right_node>1</right_node></_>
          <_>
            <!-- node 1 -->
            <feature>
              <rects>
                <_>
                  8 10 10 9 -1.</_>
                <_>
                  8 13 10 3 3.</_></rects>
              <tilted>0</tilted></feature>
            <threshold>3.0455879867076874e-02</threshold>
            <left_val>-1.5779289603233337e-01</left_val>
            <right_val>3.4707561135292053e-01</right_val></_></_>
        <_>
          <!-- tree 2 -->
          <_>
            <!-- root node -->
            <feature>
              <rects>
                <_>
                  10 12 1 3 -1.</_>
                <_>
                  10 13 1 1 3.</_></rects>
              <tilted>0</tilted></feature>
            <threshold>-4.4430331327021122e-03</threshold>
            <left_val>7.2816562652587891e-01</left_val>
            <right_node>1</right_node></_>
          <_>
            <!-- node 1 -->
            <feature>
              <rects>
                <_>
                  10 8 2 2 -1.</_>
                <_>
                  10 8 1 1 2.</_>
                <_>
                  11 9 1 1 2.</_></rects>
              <tilted>0</tilted></feature>
            <threshold>2.2148219868540764e-03</threshold>
            <left_val>-2.8148588538169861e-01</left_val>
            <right_val>4.9464368820190430e-01</right_val></_></_>
        <_>
          <!-- tree 3 -->
          <_>
            <!-- root node -->
            <feature>
              <rects>
                <_>
                  20 0 2 3 -1.</_>
                <_>
                  20 0 1 3 2.</_></rects>
              <tilted>0</tilted></feature>
            <threshold>-1.3625950086861849e-03</threshold>
            <left_val>-4.9609139561653137e-01</left_val>
            <right_node>1</right_node></_>
          <_>
            <!-- node 1 -->
            <feature>
              <rects>
                <_>
                  7 1 10 6 -1.</_>
                <_>
                  7 4 10 3 2.</_></rects>
              <tilted>0</tilted></feature>
            <threshold>-1.7679989337921143e-02</threshold>
            <left_val>3.1566178798675537e-01</left_val>
            <right_val>-1.9884380698204041e-01</right_val></_></_>
        <_>
          <!-- tree 4 -->
          <_>
            <!-- root node -->
            <feature>
              <rects>
                <_>
                  3 9 1 2 -1.</_>
                <_>
                  3 10 1 1 2.</_></rects>
              <tilted>0</tilted></feature>
            <threshold>-5.4961582645773888e-04</threshold>
            <left_val>-4.4226369261741638e-01</left_val>
            <right_node>1</right_node></_>
          <_>
            <!-- node 1 -->
            <feature>
              <rects>
                <_>
                  3 9 1 2 -1.</_>
                <_>
                  3 10 1 1 2.</_></rects>
              <tilted>0</tilted></feature>
            <threshold>5.3374120034277439e-04</threshold>
            <left_val>3.8030031323432922e-01</left_val>
            <right_val>-2.9100850224494934e-01</right_val></_></_>
        <_>
          <!-- tree 5 -->
          <_>
            <!-- root node -->
            <feature>
              <rects>
                <_>
                  8 5 10 2 -1.</_>
                <_>
                  8 6 10 1 2.</_></rects>
              <tilted>0</tilted></feature>
            <threshold>4.7679161652922630e-03</threshold>
            <left_node>1</left_node>
            <right_val>4.0879860520362854e-01</right_val></_>
          <_>
            <!-- node 1 -->
            <feature>
              <rects>
                <_>
                  8 0 15 9 -1.</_>
                <_>
                  8 3 15 3 3.</_></rects>
              <tilted>0</tilted></feature>
            <threshold>3.3481091260910034e-02</threshold>
            <left_val>-8.4172978997230530e-02</left_val>
            <right_val>2.2576990723609924e-01</right_val></_></_>
        <_>
          <!-- tree 6 -->
          <_>
            <!-- root node -->
            <feature>
              <rects>
                <_>
                  10 13 4 2 -1.</_>
                <_>
                  10 13 2 1 2.</_>
                <_>
                  12 14 2 1 2.</_></rects>
              <tilted>0</tilted></feature>
            <threshold>3.4769710619002581e-03</threshold>
            <left_node>1</left_node>
            <right_val>5.2443742752075195e-01</right_val></_>
          <_>
            <!-- node 1 -->
            <feature>
              <rects>
                <_>
                  11 8 1 3 -1.</_>
                <_>
                  11 9 1 1 3.</_></rects>
              <tilted>0</tilted></feature>
            <threshold>-3.7984319496899843e-03</threshold>
            <left_val>6.4129692316055298e-01</left_val>
            <right_val>-3.2743608951568604e-01</right_val></_></_>
        <_>
          <!-- tree 7 -->
          <_>
            <!-- root node -->
            <feature>
              <rects>
                <_>
                  11 4 2 14 -1.</_>
                <_>
                  11 11 2 7 2.</_></rects>
              <tilted>0</tilted></feature>
            <threshold>-6.4785769209265709e-03</threshold>
            <left_node>1</left_node>
            <right_val>-2.6368460059165955e-01</right_val></_>
          <_>
            <!-- node 1 -->
            <feature>
              <rects>
                <_>
                  9 13 15 6 -1.</_>
                <_>
                  14 13 5 6 3.</_></rects>
              <tilted>0</tilted></feature>
            <threshold>-3.9258848875761032e-02</threshold>
            <left_val>3.4302431344985962e-01</left_val>
            <right_val>-9.3844026327133179e-02</right_val></_></_>
        <_>
          <!-- tree 8 -->
          <_>
            <!-- root node -->
            <feature>
              <rects>
                <_>
                  0 11 24 1 -1.</_>
                <_>
                  12 11 12 1 2.</_></rects>
              <tilted>0</tilted></feature>
            <threshold>2.4954820051789284e-02</threshold>
            <left_node>1</left_node>
            <right_val>-8.3468282222747803e-01</right_val></_>
          <_>
            <!-- node 1 -->
            <feature>
              <rects>
                <_>
                  4 7 15 15 -1.</_>
                <_>
                  4 12 15 5 3.</_></rects>
              <tilted>0</tilted></feature>
            <threshold>6.4131710678339005e-03</threshold>
            <left_val>-7.6442487537860870e-02</left_val>
            <right_val>4.4026419520378113e-01</right_val></_></_>
        <_>
          <!-- tree 9 -->
          <_>
            <!-- root node -->
            <feature>
              <rects>
                <_>
                  15 3 8 16 -1.</_>
                <_>
                  19 3 4 8 2.</_>
                <_>
                  15 11 4 8 2.</_></rects>
              <tilted>0</tilted></feature>
            <threshold>-4.2225010693073273e-02</threshold>
            <left_val>3.0795300006866455e-01</left_val>
            <right_node>1</right_node></_>
          <_>
            <!-- node 1 -->
            <feature>
              <rects>
                <_>
                  15 10 3 1 -1.</_>
                <_>
                  16 10 1 1 3.</_></rects>
              <tilted>0</tilted></feature>
            <threshold>3.8910508737899363e-04</threshold>
            <left_val>-1.3163900375366211e-01</left_val>
            <right_val>1.7420700192451477e-01</right_val></_></_>
        <_>
          <!-- tree 10 -->
          <_>
            <!-- root node -->
            <feature>
              <rects>
                <_>
                  5 5 14 14 -1.</_>
                <_>
                  5 5 7 7 2.</_>
                <_>
                  12 12 7 7 2.</_></rects>
              <tilted>0</tilted></feature>
            <threshold>8.0492697656154633e-02</threshold>
            <left_node>1</left_node>
            <right_val>5.1342320442199707e-01</right_val></_>
          <_>
            <!-- node 1 -->
            <feature>
              <rects>
                <_>
                  0 2 2 1 -1.</_>
                <_>
                  1 2 1 1 2.</_></rects>
              <tilted>0</tilted></feature>
            <threshold>7.2075537173077464e-04</threshold>
            <left_val>-8.5895337164402008e-02</left_val>
            <right_val>-8.3312177658081055e-01</right_val></_></_>
        <_>
          <!-- tree 11 -->
          <_>
            <!-- root node -->
            <feature>
              <rects>
                <_>
                  19 21 1 2 -1.</_>
                <_>
                  19 22 1 1 2.</_></rects>
              <tilted>0</tilted></feature>
            <threshold>-4.2731201392598450e-04</threshold>
            <left_val>-3.8446909189224243e-01</left_val>
            <right_node>1</right_node></_>
          <_>
            <!-- node 1 -->
            <feature>
              <rects>
                <_>
                  9 4 6 20 -1.</_>
                <_>
                  11 4 2 20 3.</_></rects>
              <tilted>0</tilted></feature>
            <threshold>-4.8914741724729538e-02</threshold>
            <left_val>-7.7903598546981812e-01</left_val>
            <right_val>6.2871046364307404e-02</right_val></_></_>
        <_>
          <!-- tree 12 -->
          <_>
            <!-- root node -->
            <feature>
              <rects>
                <_>
                  0 12 1 2 -1.</_>
                <_>
                  0 13 1 1 2.</_></rects>
              <tilted>0</tilted></feature>
            <threshold>-3.3379968954250216e-04</threshold>
            <left_val>-3.5392311215400696e-01</left_val>
            <right_node>1</right_node></_>
          <_>
            <!-- node 1 -->
            <feature>
              <rects>
                <_>
                  3 7 14 12 -1.</_>
                <_>
                  3 11 14 4 3.</_></rects>
              <tilted>0</tilted></feature>
            <threshold>1.2673379480838776e-01</threshold>
            <left_val>2.8472331166267395e-01</left_val>
            <right_val>-9.6466147899627686e-01</right_val></_></_>
        <_>
          <!-- tree 13 -->
          <_>
            <!-- root node -->
            <feature>
              <rects>
                <_>
                  10 4 5 3 -1.</_>
                <_>
                  10 5 5 1 3.</_></rects>
              <tilted>0</tilted></feature>
            <threshold>2.4385598953813314e-03</threshold>
            <left_node>1</left_node>
            <right_val>2.7818480134010315e-01</right_val></_>
          <_>
            <!-- node 1 -->
            <feature>
              <rects>
                <_>
                  14 9 1 3 -1.</_>
                <_>
                  14 10 1 1 3.</_></rects>
              <tilted>0</tilted></feature>
            <threshold>2.6576539967209101e-03</threshold>
            <left_val>-9.9911227822303772e-02</left_val>
            <right_val>5.6283628940582275e-01</right_val></_></_>
        <_>
          <!-- tree 14 -->
          <_>
            <!-- root node -->
            <feature>
              <rects>
                <_>
                  6 10 3 1 -1.</_>
                <_>
                  7 10 1 1 3.</_></rects>
              <tilted>0</tilted></feature>
            <threshold>-3.3152899704873562e-03</threshold>
            <left_val>5.5002301931381226e-01</left_val>
            <right_node>1</right_node></_>
          <_>
            <!-- node 1 -->
            <feature>
              <rects>
                <_>
                  6 10 2 2 -1.</_>
                <_>
                  6 10 1 1 2.</_>
                <_>
                  7 11 1 1 2.</_></rects>
              <tilted>0</tilted></feature>
            <threshold>-2.1056779660284519e-03</threshold>
            <left_val>4.6567690372467041e-01</left_val>
            <right_val>-2.8876209259033203e-01</right_val></_></_></trees>
      <stage_threshold>-1.3100509643554688e+00</stage_threshold>
      <parent>5</parent>
      <next>-1</next></_>
    <_>
      <!-- stage 7 -->
      <trees>
        <_>
          <!-- tree 0 -->
          <_>
            <!-- root node -->
            <feature>
              <rects>
                <_>
                  11 8 2 12 -1.</_>
                <_>
                  11 14 2 6 2.</_></rects>
              <tilted>0</tilted></feature>
            <threshold>-1.8471149727702141e-02</threshold>
            <left_val>3.7879741191864014e-01</left_val>
            <right_node>1</right_node></_>
          <_>
            <!-- node 1 -->
            <feature>
              <rects>
                <_>
                  8 10 7 6 -1.</_>
                <_>
                  8 13 7 3 2.</_></rects>
              <tilted>0</tilted></feature>
            <threshold>2.1733539178967476e-02</threshold>
            <left_val>-4.2648831009864807e-01</left_val>
            <right_val>3.2022011280059814e-01</right_val></_></_>
        <_>
          <!-- tree 1 -->
          <_>
            <!-- root node -->
            <feature>
              <rects>
                <_>
                  23 3 1 2 -1.</_>
                <_>
                  23 4 1 1 2.</_></rects>
              <tilted>0</tilted></feature>
            <threshold>4.7895449097268283e-04</threshold>
            <left_val>1.0145830363035202e-01</left_val>
            <right_node>1</right_node></_>
          <_>
            <!-- node 1 -->
            <feature>
              <rects>
                <_>
                  21 23 2 1 -1.</_>
                <_>
                  21 23 1 1 2.</_></rects>
              <tilted>0</tilted></feature>
            <threshold>-8.0690748291090131e-04</threshold>
            <left_val>-5.1658880710601807e-01</left_val>
            <right_val>8.1731833517551422e-02</right_val></_></_>
        <_>
          <!-- tree 2 -->
          <_>
            <!-- root node -->
            <feature>
              <rects>
                <_>
                  0 3 1 2 -1.</_>
                <_>
                  0 4 1 1 2.</_></rects>
              <tilted>0</tilted></feature>
            <threshold>-4.4514160254038870e-04</threshold>
            <left_val>-5.7656568288803101e-01</left_val>
            <right_node>1</right_node></_>
          <_>
            <!-- node 1 -->
            <feature>
              <rects>
                <_>
                  8 4 2 3 -1.</_>
                <_>
                  8 5 2 1 3.</_></rects>
              <tilted>0</tilted></feature>
            <threshold>1.5844850568100810e-03</threshold>
            <left_val>-1.1707880347967148e-01</left_val>
            <right_val>4.8634448647499084e-01</right_val></_></_>
        <_>
          <!-- tree 3 -->
          <_>
            <!-- root node -->
            <feature>
              <rects>
                <_>
                  15 5 1 3 -1.</_>
                <_>
                  15 6 1 1 3.</_></rects>
              <tilted>0</tilted></feature>
            <threshold>1.9297699909657240e-03</threshold>
            <left_node>1</left_node>
            <right_val>2.9427710175514221e-01</right_val></_>
          <_>
            <!-- node 1 -->
            <feature>
              <rects>
                <_>
                  14 6 3 3 -1.</_>
                <_>
                  14 7 3 1 3.</_></rects>
              <tilted>0</tilted></feature>
            <threshold>1.3743720483034849e-03</threshold>
            <left_val>-1.9821900129318237e-01</left_val>
            <right_val>2.4242110550403595e-01</right_val></_></_>
        <_>
          <!-- tree 4 -->
          <_>
            <!-- root node -->
            <feature>
              <rects>
                <_>
                  8 5 1 3 -1.</_>
                <_>
                  8 6 1 1 3.</_></rects>
              <tilted>0</tilted></feature>
            <threshold>1.4629299985244870e-03</threshold>
            <left_node>1</left_node>
            <right_val>4.2128551006317139e-01</right_val></_>
          <_>
            <!-- node 1 -->
            <feature>
              <rects>
                <_>
                  8 7 2 2 -1.</_>
                <_>
                  8 8 2 1 2.</_></rects>
              <tilted>0</tilted></feature>
            <threshold>-5.4552097572013736e-04</threshold>
            <left_val>8.8057607412338257e-02</left_val>
            <right_val>-4.6648699045181274e-01</right_val></_></_>
        <_>
          <!-- tree 5 -->
          <_>
            <!-- root node -->
            <feature>
              <rects>
                <_>
                  19 12 1 2 -1.</_>
                <_>
                  19 13 1 1 2.</_></rects>
              <tilted>0</tilted></feature>
            <threshold>5.5756059737177566e-05</threshold>
            <left_node>1</left_node>
            <right_val>-1.9993719458580017e-01</right_val></_>
          <_>
            <!-- node 1 -->
            <feature>
              <rects>
                <_>
                  20 12 1 2 -1.</_>
                <_>
                  20 13 1 1 2.</_></rects>
              <tilted>0</tilted></feature>
            <threshold>-1.3720949937123805e-04</threshold>
            <left_val>-3.0740189552307129e-01</left_val>
            <right_val>1.6233970224857330e-01</right_val></_></_>
        <_>
          <!-- tree 6 -->
          <_>
            <!-- root node -->
            <feature>
              <rects>
                <_>
                  0 9 1 2 -1.</_>
                <_>
                  0 10 1 1 2.</_></rects>
              <tilted>0</tilted></feature>
            <threshold>3.2838759943842888e-04</threshold>
            <left_node>1</left_node>
            <right_val>-4.5801150798797607e-01</right_val></_>
          <_>
            <!-- node 1 -->
            <feature>
              <rects>
                <_>
                  0 9 1 2 -1.</_>
                <_>
                  0 10 1 1 2.</_></rects>
              <tilted>0</tilted></feature>
            <threshold>-4.8169679939746857e-04</threshold>
            <left_val>-3.5415759682655334e-01</left_val>
            <right_val>3.8262981176376343e-01</right_val></_></_>
        <_>
          <!-- tree 7 -->
          <_>
            <!-- root node -->
            <feature>
              <rects>
                <_>
                  13 5 7 12 -1.</_>
                <_>
                  13 9 7 4 3.</_></rects>
              <tilted>0</tilted></feature>
            <threshold>9.5881342887878418e-02</threshold>
            <left_val>1.2541170231997967e-02</left_val>
            <right_node>1</right_node></_>
          <_>
            <!-- node 1 -->
            <feature>
              <rects>
                <_>
                  9 9 6 6 -1.</_>
                <_>
                  9 11 6 2 3.</_></rects>
              <tilted>0</tilted></feature>
            <threshold>-1.4962449669837952e-02</threshold>
            <left_val>2.9290971159934998e-01</left_val>
            <right_val>-1.1076220124959946e-01</right_val></_></_>
        <_>
          <!-- tree 8 -->
          <_>
            <!-- root node -->
            <feature>
              <rects>
                <_>
                  4 5 7 12 -1.</_>
                <_>
                  4 9 7 4 3.</_></rects>
              <tilted>0</tilted></feature>
            <threshold>-5.2087120711803436e-02</threshold>
            <left_val>-7.1421378850936890e-01</left_val>
            <right_node>1</right_node></_>
          <_>
            <!-- node 1 -->
            <feature>
              <rects>
                <_>
                  9 9 6 6 -1.</_>
                <_>
                  9 11 6 2 3.</_></rects>
              <tilted>0</tilted></feature>
            <threshold>-1.9079029560089111e-02</threshold>
            <left_val>6.1901158094406128e-01</left_val>
            <right_val>-5.5126819759607315e-02</right_val></_></_>
        <_>
          <!-- tree 9 -->
          <_>
            <!-- root node -->
            <feature>
              <rects>
                <_>
                  10 9 7 6 -1.</_>
                <_>
                  10 11 7 2 3.</_></rects>
              <tilted>0</tilted></feature>
            <threshold>2.0284920930862427e-02</threshold>
            <left_node>1</left_node>
            <right_val>3.4452790021896362e-01</right_val></_>
          <_>
            <!-- node 1 -->
            <feature>
              <rects>
                <_>
                  10 1 6 6 -1.</_>
                <_>
                  10 4 6 3 2.</_></rects>
              <tilted>0</tilted></feature>
            <threshold>-2.3502919822931290e-02</threshold>
            <left_val>5.2653461694717407e-01</left_val>
            <right_val>-9.5229730010032654e-02</right_val></_></_>
        <_>
          <!-- tree 10 -->
          <_>
            <!-- root node -->
            <feature>
              <rects>
                <_>
                  7 7 4 3 -1.</_>
                <_>
                  7 8 4 1 3.</_></rects>
              <tilted>0</tilted></feature>
            <threshold>5.1295370794832706e-03</threshold>
            <left_node>1</left_node>
            <right_val>4.2384061217308044e-01</right_val></_>
          <_>
            <!-- node 1 -->
            <feature>
              <rects>
                <_>
                  6 7 3 3 -1.</_>
                <_>
                  6 8 3 1 3.</_></rects>
              <tilted>0</tilted></feature>
            <threshold>-2.7303590904921293e-03</threshold>
            <left_val>2.6334419846534729e-01</left_val>
            <right_val>-3.8521689176559448e-01</right_val></_></_>
        <_>
          <!-- tree 11 -->
          <_>
            <!-- root node -->
            <feature>
              <rects>
                <_>
                  15 11 4 4 -1.</_>
                <_>
                  17 11 2 2 2.</_>
                <_>
                  15 13 2 2 2.</_></rects>
              <tilted>0</tilted></feature>
            <threshold>-4.8679909668862820e-03</threshold>
            <left_val>2.1948090195655823e-01</left_val>
            <right_node>1</right_node></_>
          <_>
            <!-- node 1 -->
            <feature>
              <rects>
                <_>
                  12 12 12 9 -1.</_>
                <_>
                  16 12 4 9 3.</_></rects>
              <tilted>0</tilted></feature>
            <threshold>-5.0031758844852448e-02</threshold>
            <left_val>4.1465890407562256e-01</left_val>
            <right_val>-1.0208900272846222e-01</right_val></_></_>
        <_>
          <!-- tree 12 -->
          <_>
            <!-- root node -->
            <feature>
              <rects>
                <_>
                  0 2 10 20 -1.</_>
                <_>
                  0 2 5 10 2.</_>
                <_>
                  5 12 5 10 2.</_></rects>
              <tilted>0</tilted></feature>
            <threshold>-3.4207418560981750e-02</threshold>
            <left_val>2.7472960948944092e-01</left_val>
            <right_node>1</right_node></_>
          <_>
            <!-- node 1 -->
            <feature>
              <rects>
                <_>
                  3 3 6 16 -1.</_>
                <_>
                  3 3 3 8 2.</_>
                <_>
                  6 11 3 8 2.</_></rects>
              <tilted>0</tilted></feature>
            <threshold>2.3145159706473351e-02</threshold>
            <left_val>-4.4945430755615234e-01</left_val>
            <right_val>2.5399708747863770e-01</right_val></_></_>
        <_>
          <!-- tree 13 -->
          <_>
            <!-- root node -->
            <feature>
              <rects>
                <_>
                  21 19 2 1 -1.</_>
                <_>
                  21 19 1 1 2.</_></rects>
              <tilted>0</tilted></feature>
            <threshold>-7.5571291381493211e-04</threshold>
            <left_val>-4.4686728715896606e-01</left_val>
            <right_node>1</right_node></_>
          <_>
            <!-- node 1 -->
            <feature>
              <rects>
                <_>
                  18 23 2 1 -1.</_>
                <_>
                  18 23 1 1 2.</_></rects>
              <tilted>0</tilted></feature>
            <threshold>2.5528258993290365e-04</threshold>
            <left_val>1.0950449854135513e-01</left_val>
            <right_val>-3.3053898811340332e-01</right_val></_></_>
        <_>
          <!-- tree 14 -->
          <_>
            <!-- root node -->
            <feature>
              <rects>
                <_>
                  1 19 2 1 -1.</_>
                <_>
                  2 19 1 1 2.</_></rects>
              <tilted>0</tilted></feature>
            <threshold>-5.4920272668823600e-04</threshold>
            <left_val>-4.5356941223144531e-01</left_val>
            <right_node>1</right_node></_>
          <_>
            <!-- node 1 -->
            <feature>
              <rects>
                <_>
                  4 23 2 1 -1.</_>
                <_>
                  5 23 1 1 2.</_></rects>
              <tilted>0</tilted></feature>
            <threshold>4.6703338739462197e-04</threshold>
            <left_val>3.3502560853958130e-01</left_val>
            <right_val>-3.0672571063041687e-01</right_val></_></_>
        <_>
          <!-- tree 15 -->
          <_>
            <!-- root node -->
            <feature>
              <rects>
                <_>
                  13 11 2 2 -1.</_>
                <_>
                  14 11 1 1 2.</_>
                <_>
                  13 12 1 1 2.</_></rects>
              <tilted>0</tilted></feature>
            <threshold>-1.4353239675983787e-03</threshold>
            <left_node>1</left_node>
            <right_val>-5.8472778648138046e-02</right_val></_>
          <_>
            <!-- node 1 -->
            <feature>
              <rects>
                <_>
                  14 11 2 3 -1.</_>
                <_>
                  14 12 2 1 3.</_></rects>
              <tilted>0</tilted></feature>
            <threshold>2.8954530134797096e-03</threshold>
            <left_val>-7.8256130218505859e-02</left_val>
            <right_val>2.4756130576133728e-01</right_val></_></_>
        <_>
          <!-- tree 16 -->
          <_>
            <!-- root node -->
            <feature>
              <rects>
                <_>
                  9 11 2 2 -1.</_>
                <_>
                  9 11 1 1 2.</_>
                <_>
                  10 12 1 1 2.</_></rects>
              <tilted>0</tilted></feature>
            <threshold>2.0346690434962511e-03</threshold>
            <left_node>1</left_node>
            <right_val>6.2879908084869385e-01</right_val></_>
          <_>
            <!-- node 1 -->
            <feature>
              <rects>
                <_>
                  8 11 2 3 -1.</_>
                <_>
                  8 12 2 1 3.</_></rects>
              <tilted>0</tilted></feature>
            <threshold>1.0654509533196688e-03</threshold>
            <left_val>-3.5130938887596130e-01</left_val>
            <right_val>2.0901639759540558e-01</right_val></_></_>
        <_>
          <!-- tree 17 -->
          <_>
            <!-- root node -->
            <feature>
              <rects>
                <_>
                  20 0 3 2 -1.</_>
                <_>
                  21 0 1 2 3.</_></rects>
              <tilted>0</tilted></feature>
            <threshold>-8.9883629698306322e-04</threshold>
            <left_node>1</left_node>
            <right_val>1.1784110218286514e-01</right_val></_>
          <_>
            <!-- node 1 -->
            <feature>
              <rects>
                <_>
                  10 8 6 7 -1.</_>
                <_>
                  12 8 2 7 3.</_></rects>
              <tilted>0</tilted></feature>
            <threshold>6.5905409865081310e-03</threshold>
            <left_val>-9.9912777543067932e-02</left_val>
            <right_val>1.8631090223789215e-01</right_val></_></_>
        <_>
          <!-- tree 18 -->
          <_>
            <!-- root node -->
            <feature>
              <rects>
                <_>
                  10 6 3 3 -1.</_>
                <_>
                  11 6 1 3 3.</_></rects>
              <tilted>0</tilted></feature>
            <threshold>1.7990770284086466e-03</threshold>
            <left_node>1</left_node>
            <right_val>2.7005508542060852e-01</right_val></_>
          <_>
            <!-- node 1 -->
            <feature>
              <rects>
                <_>
                  4 6 10 2 -1.</_>
                <_>
                  4 6 5 1 2.</_>
                <_>
                  9 7 5 1 2.</_></rects>
              <tilted>0</tilted></feature>
            <threshold>-1.8554539419710636e-03</threshold>
            <left_val>1.4134329557418823e-01</left_val>
            <right_val>-4.8068699240684509e-01</right_val></_></_>
        <_>
          <!-- tree 19 -->
          <_>
            <!-- root node -->
            <feature>
              <rects>
                <_>
                  21 10 2 1 -1.</_>
                <_>
                  21 10 1 1 2.</_></rects>
              <tilted>0</tilted></feature>
            <threshold>2.5689040194265544e-04</threshold>
            <left_node>1</left_node>
            <right_val>-3.2358449697494507e-01</right_val></_>
          <_>
            <!-- node 1 -->
            <feature>
              <rects>
                <_>
                  9 12 7 3 -1.</_>
                <_>
                  9 13 7 1 3.</_></rects>
              <tilted>0</tilted></feature>
            <threshold>1.0130579583346844e-02</threshold>
            <left_val>-9.9860407412052155e-02</left_val>
            <right_val>4.4387260079383850e-01</right_val></_></_></trees>
      <stage_threshold>-1.3866790533065796e+00</stage_threshold>
      <parent>6</parent>
      <next>-1</next></_>
    <_>
      <!-- stage 8 -->
      <trees>
        <_>
          <!-- tree 0 -->
          <_>
            <!-- root node -->
            <feature>
              <rects>
                <_>
                  0 15 24 3 -1.</_>
                <_>
                  8 15 8 3 3.</_></rects>
              <tilted>0</tilted></feature>
            <threshold>-5.7697661221027374e-02</threshold>
            <left_val>4.5373070240020752e-01</left_val>
            <right_node>1</right_node></_>
          <_>
            <!-- node 1 -->
            <feature>
              <rects>
                <_>
                  5 15 4 3 -1.</_>
                <_>
                  7 15 2 3 2.</_></rects>
              <tilted>0</tilted></feature>
            <threshold>2.3730640532448888e-04</threshold>
            <left_val>-5.1260572671890259e-01</left_val>
            <right_val>1.7028650641441345e-01</right_val></_></_>
        <_>
          <!-- tree 1 -->
          <_>
            <!-- root node -->
            <feature>
              <rects>
                <_>
                  12 7 1 3 -1.</_>
                <_>
                  12 8 1 1 3.</_></rects>
              <tilted>0</tilted></feature>
            <threshold>-5.3050699643790722e-03</threshold>
            <left_node>1</left_node>
            <right_val>-5.7703450322151184e-02</right_val></_>
          <_>
            <!-- node 1 -->
            <feature>
              <rects>
                <_>
                  12 8 2 2 -1.</_>
                <_>
                  13 8 1 1 2.</_>
                <_>
                  12 9 1 1 2.</_></rects>
              <tilted>0</tilted></feature>
            <threshold>1.5279119834303856e-03</threshold>
            <left_val>-1.1360830068588257e-01</left_val>
            <right_val>4.5402878522872925e-01</right_val></_></_>
        <_>
          <!-- tree 2 -->
          <_>
            <!-- root node -->
            <feature>
              <rects>
                <_>
                  11 7 1 3 -1.</_>
                <_>
                  11 8 1 1 3.</_></rects>
              <tilted>0</tilted></feature>
            <threshold>8.7964371778070927e-04</threshold>
            <left_node>1</left_node>
            <right_val>3.5852020978927612e-01</right_val></_>
          <_>
            <!-- node 1 -->
            <feature>
              <rects>
                <_>
                  10 8 2 2 -1.</_>
                <_>
                  10 8 1 1 2.</_>
                <_>
                  11 9 1 1 2.</_></rects>
              <tilted>0</tilted></feature>
            <threshold>1.1407909914851189e-03</threshold>
            <left_val>-3.8921979069709778e-01</left_val>
            <right_val>3.0964490771293640e-01</right_val></_></_>
        <_>
          <!-- tree 3 -->
          <_>
            <!-- root node -->
            <feature>
              <rects>
                <_>
                  10 13 5 8 -1.</_>
                <_>
                  10 17 5 4 2.</_></rects>
              <tilted>0</tilted></feature>
            <threshold>-2.0738130435347557e-02</threshold>
            <left_val>3.0456888675689697e-01</left_val>
            <right_node>1</right_node></_>
          <_>
            <!-- node 1 -->
            <feature>
              <rects>
                <_>
                  11 9 4 9 -1.</_>
                <_>
                  11 12 4 3 3.</_></rects>
              <tilted>0</tilted></feature>
            <threshold>2.5685429573059082e-02</threshold>
            <left_val>-9.4583876430988312e-02</left_val>
            <right_val>4.0502619743347168e-01</right_val></_></_>
        <_>
          <!-- tree 4 -->
          <_>
            <!-- root node -->
            <feature>
              <rects>
                <_>
                  8 9 6 9 -1.</_>
                <_>
                  8 12 6 3 3.</_></rects>
              <tilted>0</tilted></feature>
            <threshold>-2.8004959225654602e-02</threshold>
            <left_val>3.5276010632514954e-01</left_val>
            <right_node>1</right_node></_>
          <_>
            <!-- node 1 -->
            <feature>
              <rects>
                <_>
                  9 10 2 2 -1.</_>
                <_>
                  9 10 1 1 2.</_>
                <_>
                  10 11 1 1 2.</_></rects>
              <tilted>0</tilted></feature>
            <threshold>-8.2107138587161899e-04</threshold>
            <left_val>1.9744080305099487e-01</left_val>
            <right_val>-4.5531108975410461e-01</right_val></_></_>
        <_>
          <!-- tree 5 -->
          <_>
            <!-- root node -->
            <feature>
              <rects>
                <_>
                  22 1 2 11 -1.</_>
                <_>
                  22 1 1 11 2.</_></rects>
              <tilted>0</tilted></feature>
            <threshold>-2.1565139759331942e-03</threshold>
            <left_val>-2.9252010583877563e-01</left_val>
            <right_node>1</right_node></_>
          <_>
            <!-- node 1 -->
            <feature>
              <rects>
                <_>
                  22 0 1 2 -1.</_>
                <_>
                  22 1 1 1 2.</_></rects>
              <tilted>0</tilted></feature>
            <threshold>-4.4059669016860425e-04</threshold>
            <left_val>-3.8418871164321899e-01</left_val>
            <right_val>1.2236469984054565e-01</right_val></_></_>
        <_>
          <!-- tree 6 -->
          <_>
            <!-- root node -->
            <feature>
              <rects>
                <_>
                  1 12 12 6 -1.</_>
                <_>
                  5 12 4 6 3.</_></rects>
              <tilted>0</tilted></feature>
            <threshold>-1.5948340296745300e-02</threshold>
            <left_val>3.8098719716072083e-01</left_val>
            <right_node>1</right_node></_>
          <_>
            <!-- node 1 -->
            <feature>
              <rects>
                <_>
                  5 8 4 1 -1.</_>
                <_>
                  7 8 2 1 2.</_></rects>
              <tilted>0</tilted></feature>
            <threshold>1.0031940182670951e-03</threshold>
            <left_val>-3.5356411337852478e-01</left_val>
            <right_val>3.1973040103912354e-01</right_val></_></_>
        <_>
          <!-- tree 7 -->
          <_>
            <!-- root node -->
            <feature>
              <rects>
                <_>
                  22 1 2 11 -1.</_>
                <_>
                  22 1 1 11 2.</_></rects>
              <tilted>0</tilted></feature>
            <threshold>6.1485720798373222e-03</threshold>
            <left_val>5.8836139738559723e-02</left_val>
            <right_node>1</right_node></_>
          <_>
            <!-- node 1 -->
            <feature>
              <rects>
                <_>
                  11 6 2 12 -1.</_>
                <_>
                  11 12 2 6 2.</_></rects>
              <tilted>0</tilted></feature>
            <threshold>-1.4549180377798621e-05</threshold>
            <left_val>1.5527120232582092e-01</left_val>
            <right_val>-3.2248300313949585e-01</right_val></_></_>
        <_>
          <!-- tree 8 -->
          <_>
            <!-- root node -->
            <feature>
              <rects>
                <_>
                  7 6 8 3 -1.</_>
                <_>
                  7 7 8 1 3.</_></rects>
              <tilted>0</tilted></feature>
            <threshold>5.8949119411408901e-03</threshold>
            <left_node>1</left_node>
            <right_val>3.6313429474830627e-01</right_val></_>
          <_>
            <!-- node 1 -->
            <feature>
              <rects>
                <_>
                  10 8 1 3 -1.</_>
                <_>
                  10 9 1 1 3.</_></rects>
